Language model created by QuickLM on Wed Oct 19 18:26:28 EDT 2016
Copyright (c) 1996-2010 Carnegie Mellon University and Alexander I. Rudnicky

The model is in standard ARPA format, designed by Doug Paul while he was at MITRE.

The code that was used to produce this language model is available in Open Source.
Please visit http://www.speech.cs.cmu.edu/tools/ for more information

The (fixed) discount mass is 0.5. The backoffs are computed using the ratio method.
This model based on a corpus of 41 sentences and 40 words

\data\
ngram 1=40
ngram 2=79
ngram 3=62

\1-grams:
-0.8466 </s> -0.3010
-0.8466 <s> -0.2237
-2.4594 AREA -0.2343
-1.9823 BATHROOM -0.2343
-2.4594 BATHROOMS -0.2343
-2.4594 CAFETERIA -0.2343
-2.4594 DEMO -0.2343
-2.4594 DEMONSTRATION -0.2343
-2.4594 DEMONSTRATIONS -0.2343
-2.4594 DEMOS -0.2343
-2.4594 EAT -0.2343
-2.4594 ENTRANCE -0.2343
-2.4594 EXHIBIT -0.2343
-2.4594 EXHIBITS -0.2343
-2.4594 EXIT -0.2343
-2.1584 FOOD -0.2326
-2.4594 FOYER -0.2343
-1.9823 HELLO -0.2872
-1.9823 HEY -0.2872
-1.9823 HI -0.2872
-1.9823 JACKRABBIT -0.2343
-1.9823 JACKRABBOT -0.2343
-1.9823 JR -0.2343
-2.1584 KEYNOTE -0.2980
-2.4594 KEYNOTES -0.2343
-1.9823 MENS -0.2872
-2.4594 POSTER -0.2995
-2.4594 POSTERS -0.2343
-1.9823 RESTROOM -0.2343
-2.4594 RESTROOMS -0.2343
-2.4594 SESSION -0.2343
-2.4594 SESSIONS -0.2343
-2.4594 SOMETHING -0.2995
-2.4594 TALKS -0.2343
-2.4594 TO -0.2995
-2.4594 TUTORIAL -0.2343
-2.4594 TUTORIALS -0.2343
-1.9823 WASHROOM -0.2343
-2.4594 WASHROOMS -0.2343
-1.9823 WOMENS -0.2872

\2-grams:
-1.9138 <s> BATHROOM 0.0000
-1.9138 <s> BATHROOMS 0.0000
-1.9138 <s> CAFETERIA 0.0000
-1.9138 <s> DEMO 0.0000
-1.9138 <s> DEMONSTRATION 0.0000
-1.9138 <s> DEMONSTRATIONS 0.0000
-1.9138 <s> DEMOS 0.0000
-1.9138 <s> ENTRANCE 0.0000
-1.9138 <s> EXHIBIT 0.0000
-1.9138 <s> EXHIBITS 0.0000
-1.9138 <s> EXIT 0.0000
-1.6128 <s> FOOD 0.0000
-1.9138 <s> FOYER 0.0000
-1.4367 <s> HELLO 0.0000
-1.4367 <s> HEY 0.0000
-1.4367 <s> HI 0.0000
-1.6128 <s> KEYNOTE 0.0000
-1.9138 <s> KEYNOTES 0.0000
-1.4367 <s> MENS 0.0000
-1.9138 <s> POSTER 0.0000
-1.9138 <s> POSTERS 0.0000
-1.9138 <s> RESTROOM 0.0000
-1.9138 <s> RESTROOMS 0.0000
-1.9138 <s> SOMETHING 0.0000
-1.9138 <s> TUTORIAL 0.0000
-1.9138 <s> TUTORIALS 0.0000
-1.9138 <s> WASHROOM 0.0000
-1.9138 <s> WASHROOMS 0.0000
-1.4367 <s> WOMENS 0.0000
-0.3010 AREA </s> -0.3010
-0.3010 BATHROOM </s> -0.3010
-0.3010 BATHROOMS </s> -0.3010
-0.3010 CAFETERIA </s> -0.3010
-0.3010 DEMO </s> -0.3010
-0.3010 DEMONSTRATION </s> -0.3010
-0.3010 DEMONSTRATIONS </s> -0.3010
-0.3010 DEMOS </s> -0.3010
-0.3010 EAT </s> -0.3010
-0.3010 ENTRANCE </s> -0.3010
-0.3010 EXHIBIT </s> -0.3010
-0.3010 EXHIBITS </s> -0.3010
-0.3010 EXIT </s> -0.3010
-0.6021 FOOD </s> -0.3010
-0.6021 FOOD AREA 0.0000
-0.3010 FOYER </s> -0.3010
-0.7782 HELLO JACKRABBIT 0.0000
-0.7782 HELLO JACKRABBOT 0.0000
-0.7782 HELLO JR 0.0000
-0.7782 HEY JACKRABBIT 0.0000
-0.7782 HEY JACKRABBOT 0.0000
-0.7782 HEY JR 0.0000
-0.7782 HI JACKRABBIT 0.0000
-0.7782 HI JACKRABBOT 0.0000
-0.7782 HI JR 0.0000
-0.3010 JACKRABBIT </s> -0.3010
-0.3010 JACKRABBOT </s> -0.3010
-0.3010 JR </s> -0.3010
-0.6021 KEYNOTE SESSIONS 0.0000
-0.6021 KEYNOTE TALKS 0.0000
-0.3010 KEYNOTES </s> -0.3010
-0.7782 MENS BATHROOM 0.0000
-0.7782 MENS RESTROOM 0.0000
-0.7782 MENS WASHROOM 0.0000
-0.3010 POSTER SESSION 0.0000
-0.3010 POSTERS </s> -0.3010
-0.3010 RESTROOM </s> -0.3010
-0.3010 RESTROOMS </s> -0.3010
-0.3010 SESSION </s> -0.3010
-0.3010 SESSIONS </s> -0.3010
-0.3010 SOMETHING TO 0.0000
-0.3010 TALKS </s> -0.3010
-0.3010 TO EAT 0.0000
-0.3010 TUTORIAL </s> -0.3010
-0.3010 TUTORIALS </s> -0.3010
-0.3010 WASHROOM </s> -0.3010
-0.3010 WASHROOMS </s> -0.3010
-0.7782 WOMENS BATHROOM 0.0000
-0.7782 WOMENS RESTROOM 0.0000
-0.7782 WOMENS WASHROOM 0.0000

\3-grams:
-0.3010 <s> BATHROOM </s>
-0.3010 <s> BATHROOMS </s>
-0.3010 <s> CAFETERIA </s>
-0.3010 <s> DEMO </s>
-0.3010 <s> DEMONSTRATION </s>
-0.3010 <s> DEMONSTRATIONS </s>
-0.3010 <s> DEMOS </s>
-0.3010 <s> ENTRANCE </s>
-0.3010 <s> EXHIBIT </s>
-0.3010 <s> EXHIBITS </s>
-0.3010 <s> EXIT </s>
-0.6021 <s> FOOD </s>
-0.6021 <s> FOOD AREA
-0.3010 <s> FOYER </s>
-0.7782 <s> HELLO JACKRABBIT
-0.7782 <s> HELLO JACKRABBOT
-0.7782 <s> HELLO JR
-0.7782 <s> HEY JACKRABBIT
-0.7782 <s> HEY JACKRABBOT
-0.7782 <s> HEY JR
-0.7782 <s> HI JACKRABBIT
-0.7782 <s> HI JACKRABBOT
-0.7782 <s> HI JR
-0.6021 <s> KEYNOTE SESSIONS
-0.6021 <s> KEYNOTE TALKS
-0.3010 <s> KEYNOTES </s>
-0.7782 <s> MENS BATHROOM
-0.7782 <s> MENS RESTROOM
-0.7782 <s> MENS WASHROOM
-0.3010 <s> POSTER SESSION
-0.3010 <s> POSTERS </s>
-0.3010 <s> RESTROOM </s>
-0.3010 <s> RESTROOMS </s>
-0.3010 <s> SOMETHING TO
-0.3010 <s> TUTORIAL </s>
-0.3010 <s> TUTORIALS </s>
-0.3010 <s> WASHROOM </s>
-0.3010 <s> WASHROOMS </s>
-0.7782 <s> WOMENS BATHROOM
-0.7782 <s> WOMENS RESTROOM
-0.7782 <s> WOMENS WASHROOM
-0.3010 FOOD AREA </s>
-0.3010 HELLO JACKRABBIT </s>
-0.3010 HELLO JACKRABBOT </s>
-0.3010 HELLO JR </s>
-0.3010 HEY JACKRABBIT </s>
-0.3010 HEY JACKRABBOT </s>
-0.3010 HEY JR </s>
-0.3010 HI JACKRABBIT </s>
-0.3010 HI JACKRABBOT </s>
-0.3010 HI JR </s>
-0.3010 KEYNOTE SESSIONS </s>
-0.3010 KEYNOTE TALKS </s>
-0.3010 MENS BATHROOM </s>
-0.3010 MENS RESTROOM </s>
-0.3010 MENS WASHROOM </s>
-0.3010 POSTER SESSION </s>
-0.3010 SOMETHING TO EAT
-0.3010 TO EAT </s>
-0.3010 WOMENS BATHROOM </s>
-0.3010 WOMENS RESTROOM </s>
-0.3010 WOMENS WASHROOM </s>

\end\
