Language model created by QuickLM on Thu Oct 27 16:49:06 EDT 2016
Copyright (c) 1996-2010 Carnegie Mellon University and Alexander I. Rudnicky

The model is in standard ARPA format, designed by Doug Paul while he was at MITRE.

The code that was used to produce this language model is available in Open Source.
Please visit http://www.speech.cs.cmu.edu/tools/ for more information

The (fixed) discount mass is 0.5. The backoffs are computed using the ratio method.
This model based on a corpus of 78 sentences and 60 words

\data\
ngram 1=60
ngram 2=137
ngram 3=132

\1-grams:
-0.8758 </s> -0.3010
-0.8758 <s> -0.2216
-2.7679 A -0.3003
-2.7679 ABORT -0.2390
-2.2908 AREA -0.2390
-2.2908 BATHROOM -0.2390
-2.7679 BATHROOMS -0.2390
-2.4669 CAFETERIA -0.2390
-2.7679 CONTINUE -0.2390
-2.7679 DEMO -0.2390
-2.7679 DEMONSTRATION -0.2390
-2.4669 DEMONSTRATIONS -0.2390
-2.4669 DEMOS -0.2390
-2.7679 EAT -0.2390
-2.4669 ENTRANCE -0.2390
-2.4669 EXHIBIT -0.2364
-2.4669 EXHIBITS -0.2390
-2.4669 EXIT -0.2390
-2.2908 FOLLOW -0.2338
-2.0689 FOOD -0.2347
-2.4669 FOYER -0.2390
-2.7679 GO -0.2390
-2.7679 GOING -0.2390
-2.2908 HELLO -0.2943
-2.2908 HEY -0.2943
-2.2908 HI -0.2943
-2.7679 HOLD -0.3003
-2.2908 JACKRABBIT -0.2390
-2.2908 JACKRABBOT -0.2390
-2.2908 JR -0.2390
-2.7679 KEEP -0.3003
-2.0689 KEYNOTE -0.2321
-2.4669 KEYNOTES -0.2390
-2.2908 LEAD -0.2338
-1.9897 ME -0.2364
-2.2908 MENS -0.2943
-2.7679 MINUTE -0.2390
-2.7679 ON -0.2390
-2.2908 POSTER -0.2943
-2.4669 POSTERS -0.2390
-2.2908 RESTROOM -0.2390
-2.7679 RESTROOMS -0.2390
-2.2908 SESSION -0.2390
-2.2908 SESSIONS -0.2390
-2.7679 SOMETHING -0.3003
-2.7679 STOP -0.2390
-2.4669 TAKE -0.2966
-2.7679 TALK -0.2390
-2.7679 TALKS -0.2390
-1.5638 THE -0.2727
-2.2908 THERE -0.2390
-2.7679 TO -0.3003
-2.7679 TRUCK -0.2390
-2.7679 TRUCKS -0.2390
-2.2908 TUTORIAL -0.2338
-2.4669 TUTORIALS -0.2390
-2.4669 WAIT -0.2381
-2.2908 WASHROOM -0.2390
-2.7679 WASHROOMS -0.2390
-2.2908 WOMENS -0.2943

\2-grams:
-2.1931 <s> ABORT 0.0000
-2.1931 <s> BATHROOM 0.0000
-2.1931 <s> BATHROOMS 0.0000
-2.1931 <s> CAFETERIA 0.0000
-2.1931 <s> CONTINUE 0.0000
-2.1931 <s> DEMONSTRATIONS 0.0000
-2.1931 <s> DEMOS 0.0000
-2.1931 <s> ENTRANCE 0.0000
-2.1931 <s> EXHIBIT -0.1761
-2.1931 <s> EXHIBITS 0.0000
-2.1931 <s> EXIT 0.0000
-1.7160 <s> FOLLOW 0.0000
-1.5911 <s> FOOD 0.0000
-2.1931 <s> FOYER 0.0000
-2.1931 <s> GO 0.0000
-1.7160 <s> HELLO 0.0000
-1.7160 <s> HEY 0.0000
-1.7160 <s> HI 0.0000
-2.1931 <s> HOLD 0.0000
-2.1931 <s> KEEP 0.0000
-1.5911 <s> KEYNOTE -0.0792
-2.1931 <s> KEYNOTES 0.0000
-1.7160 <s> LEAD 0.0000
-1.7160 <s> MENS 0.0000
-1.7160 <s> POSTER 0.0000
-2.1931 <s> POSTERS 0.0000
-2.1931 <s> RESTROOM 0.0000
-2.1931 <s> RESTROOMS 0.0000
-2.1931 <s> SOMETHING 0.0000
-2.1931 <s> STOP 0.0000
-1.8921 <s> TAKE 0.0000
-0.9890 <s> THE 0.0000
-1.8921 <s> TUTORIAL -0.1249
-2.1931 <s> TUTORIALS 0.0000
-1.8921 <s> WAIT 0.0000
-2.1931 <s> WASHROOM 0.0000
-2.1931 <s> WASHROOMS 0.0000
-1.7160 <s> WOMENS 0.0000
-0.3010 A MINUTE 0.0000
-0.3010 ABORT </s> -0.3010
-0.3010 AREA </s> -0.3010
-0.3010 BATHROOM </s> -0.3010
-0.3010 BATHROOMS </s> -0.3010
-0.3010 CAFETERIA </s> -0.3010
-0.3010 CONTINUE </s> -0.3010
-0.3010 DEMO </s> -0.3010
-0.3010 DEMONSTRATION </s> -0.3010
-0.3010 DEMONSTRATIONS </s> -0.3010
-0.3010 DEMOS </s> -0.3010
-0.3010 EAT </s> -0.3010
-0.3010 ENTRANCE </s> -0.3010
-0.6021 EXHIBIT </s> -0.3010
-0.6021 EXHIBIT AREA 0.0000
-0.3010 EXHIBITS </s> -0.3010
-0.3010 EXIT </s> -0.3010
-0.7782 FOLLOW </s> -0.3010
-0.4771 FOLLOW ME 0.0000
-0.6990 FOOD </s> -0.3010
-1.0000 FOOD AREA 0.0000
-1.0000 FOOD TRUCK 0.0000
-1.0000 FOOD TRUCKS 0.0000
-0.3010 FOYER </s> -0.3010
-0.3010 GO </s> -0.3010
-0.3010 GOING </s> -0.3010
-0.7782 HELLO JACKRABBIT 0.0000
-0.7782 HELLO JACKRABBOT 0.0000
-0.7782 HELLO JR 0.0000
-0.7782 HEY JACKRABBIT 0.0000
-0.7782 HEY JACKRABBOT 0.0000
-0.7782 HEY JR 0.0000
-0.7782 HI JACKRABBIT 0.0000
-0.7782 HI JACKRABBOT 0.0000
-0.7782 HI JR 0.0000
-0.3010 HOLD ON 0.0000
-0.3010 JACKRABBIT </s> -0.3010
-0.3010 JACKRABBOT </s> -0.3010
-0.3010 JR </s> -0.3010
-0.3010 KEEP GOING 0.0000
-1.0000 KEYNOTE </s> -0.3010
-1.0000 KEYNOTE SESSION 0.0000
-1.0000 KEYNOTE SESSIONS 0.0000
-1.0000 KEYNOTE TALK 0.0000
-1.0000 KEYNOTE TALKS 0.0000
-0.3010 KEYNOTES </s> -0.3010
-0.7782 LEAD </s> -0.3010
-0.4771 LEAD ME 0.0000
-0.6021 ME </s> -0.3010
-0.6021 ME THERE 0.0000
-0.7782 MENS BATHROOM 0.0000
-0.7782 MENS RESTROOM 0.0000
-0.7782 MENS WASHROOM 0.0000
-0.3010 MINUTE </s> -0.3010
-0.3010 ON </s> -0.3010
-0.7782 POSTER AREA 0.0000
-0.7782 POSTER SESSION 0.0000
-0.7782 POSTER SESSIONS 0.0000
-0.3010 POSTERS </s> -0.3010
-0.3010 RESTROOM </s> -0.3010
-0.3010 RESTROOMS </s> -0.3010
-0.3010 SESSION </s> -0.3010
-0.3010 SESSIONS </s> -0.3010
-0.3010 SOMETHING TO 0.0000
-0.3010 STOP </s> -0.3010
-0.3010 TAKE ME 0.0000
-0.3010 TALK </s> -0.3010
-0.3010 TALKS </s> -0.3010
-1.5051 THE CAFETERIA 0.0000
-1.5051 THE DEMO 0.0000
-1.5051 THE DEMONSTRATION 0.0000
-1.5051 THE DEMONSTRATIONS 0.0000
-1.5051 THE DEMOS 0.0000
-1.5051 THE ENTRANCE 0.0000
-1.5051 THE EXHIBIT -0.1761
-1.5051 THE EXHIBITS 0.0000
-1.5051 THE EXIT 0.0000
-1.5051 THE FOOD -0.2041
-1.5051 THE FOYER 0.0000
-1.5051 THE KEYNOTE -0.2553
-1.5051 THE KEYNOTES 0.0000
-1.5051 THE POSTERS 0.0000
-1.5051 THE TUTORIAL -0.2218
-1.5051 THE TUTORIALS 0.0000
-0.3010 THERE </s> -0.3010
-0.3010 TO EAT 0.0000
-0.3010 TRUCK </s> -0.3010
-0.3010 TRUCKS </s> -0.3010
-0.7782 TUTORIAL </s> -0.3010
-0.7782 TUTORIAL SESSION 0.0000
-0.7782 TUTORIAL SESSIONS 0.0000
-0.3010 TUTORIALS </s> -0.3010
-0.6021 WAIT </s> -0.3010
-0.6021 WAIT A 0.0000
-0.3010 WASHROOM </s> -0.3010
-0.3010 WASHROOMS </s> -0.3010
-0.7782 WOMENS BATHROOM 0.0000
-0.7782 WOMENS RESTROOM 0.0000
-0.7782 WOMENS WASHROOM 0.0000

\3-grams:
-0.3010 <s> ABORT </s>
-0.3010 <s> BATHROOM </s>
-0.3010 <s> BATHROOMS </s>
-0.3010 <s> CAFETERIA </s>
-0.3010 <s> CONTINUE </s>
-0.3010 <s> DEMONSTRATIONS </s>
-0.3010 <s> DEMOS </s>
-0.3010 <s> ENTRANCE </s>
-0.3010 <s> EXHIBIT AREA
-0.3010 <s> EXHIBITS </s>
-0.3010 <s> EXIT </s>
-0.7782 <s> FOLLOW </s>
-0.4771 <s> FOLLOW ME
-0.9031 <s> FOOD </s>
-0.9031 <s> FOOD AREA
-0.9031 <s> FOOD TRUCK
-0.9031 <s> FOOD TRUCKS
-0.3010 <s> FOYER </s>
-0.3010 <s> GO </s>
-0.7782 <s> HELLO JACKRABBIT
-0.7782 <s> HELLO JACKRABBOT
-0.7782 <s> HELLO JR
-0.7782 <s> HEY JACKRABBIT
-0.7782 <s> HEY JACKRABBOT
-0.7782 <s> HEY JR
-0.7782 <s> HI JACKRABBIT
-0.7782 <s> HI JACKRABBOT
-0.7782 <s> HI JR
-0.3010 <s> HOLD ON
-0.3010 <s> KEEP GOING
-0.9031 <s> KEYNOTE SESSION
-0.9031 <s> KEYNOTE SESSIONS
-0.9031 <s> KEYNOTE TALK
-0.9031 <s> KEYNOTE TALKS
-0.3010 <s> KEYNOTES </s>
-0.7782 <s> LEAD </s>
-0.4771 <s> LEAD ME
-0.7782 <s> MENS BATHROOM
-0.7782 <s> MENS RESTROOM
-0.7782 <s> MENS WASHROOM
-0.7782 <s> POSTER AREA
-0.7782 <s> POSTER SESSION
-0.7782 <s> POSTER SESSIONS
-0.3010 <s> POSTERS </s>
-0.3010 <s> RESTROOM </s>
-0.3010 <s> RESTROOMS </s>
-0.3010 <s> SOMETHING TO
-0.3010 <s> STOP </s>
-0.3010 <s> TAKE ME
-1.5051 <s> THE CAFETERIA
-1.5051 <s> THE DEMO
-1.5051 <s> THE DEMONSTRATION
-1.5051 <s> THE DEMONSTRATIONS
-1.5051 <s> THE DEMOS
-1.5051 <s> THE ENTRANCE
-1.5051 <s> THE EXHIBIT
-1.5051 <s> THE EXHIBITS
-1.5051 <s> THE EXIT
-1.5051 <s> THE FOOD
-1.5051 <s> THE FOYER
-1.5051 <s> THE KEYNOTE
-1.5051 <s> THE KEYNOTES
-1.5051 <s> THE POSTERS
-1.5051 <s> THE TUTORIAL
-1.5051 <s> THE TUTORIALS
-0.6021 <s> TUTORIAL SESSION
-0.6021 <s> TUTORIAL SESSIONS
-0.3010 <s> TUTORIALS </s>
-0.6021 <s> WAIT </s>
-0.6021 <s> WAIT A
-0.3010 <s> WASHROOM </s>
-0.3010 <s> WASHROOMS </s>
-0.7782 <s> WOMENS BATHROOM
-0.7782 <s> WOMENS RESTROOM
-0.7782 <s> WOMENS WASHROOM
-0.3010 A MINUTE </s>
-0.3010 EXHIBIT AREA </s>
-0.6021 FOLLOW ME </s>
-0.6021 FOLLOW ME THERE
-0.3010 FOOD AREA </s>
-0.3010 FOOD TRUCK </s>
-0.3010 FOOD TRUCKS </s>
-0.3010 HELLO JACKRABBIT </s>
-0.3010 HELLO JACKRABBOT </s>
-0.3010 HELLO JR </s>
-0.3010 HEY JACKRABBIT </s>
-0.3010 HEY JACKRABBOT </s>
-0.3010 HEY JR </s>
-0.3010 HI JACKRABBIT </s>
-0.3010 HI JACKRABBOT </s>
-0.3010 HI JR </s>
-0.3010 HOLD ON </s>
-0.3010 KEEP GOING </s>
-0.3010 KEYNOTE SESSION </s>
-0.3010 KEYNOTE SESSIONS </s>
-0.3010 KEYNOTE TALK </s>
-0.3010 KEYNOTE TALKS </s>
-0.6021 LEAD ME </s>
-0.6021 LEAD ME THERE
-0.3010 ME THERE </s>
-0.3010 MENS BATHROOM </s>
-0.3010 MENS RESTROOM </s>
-0.3010 MENS WASHROOM </s>
-0.3010 POSTER AREA </s>
-0.3010 POSTER SESSION </s>
-0.3010 POSTER SESSIONS </s>
-0.3010 SOMETHING TO EAT
-0.6021 TAKE ME </s>
-0.6021 TAKE ME THERE
-0.3010 THE CAFETERIA </s>
-0.3010 THE DEMO </s>
-0.3010 THE DEMONSTRATION </s>
-0.3010 THE DEMONSTRATIONS </s>
-0.3010 THE DEMOS </s>
-0.3010 THE ENTRANCE </s>
-0.3010 THE EXHIBIT </s>
-0.3010 THE EXHIBITS </s>
-0.3010 THE EXIT </s>
-0.3010 THE FOOD </s>
-0.3010 THE FOYER </s>
-0.3010 THE KEYNOTE </s>
-0.3010 THE KEYNOTES </s>
-0.3010 THE POSTERS </s>
-0.3010 THE TUTORIAL </s>
-0.3010 THE TUTORIALS </s>
-0.3010 TO EAT </s>
-0.3010 TUTORIAL SESSION </s>
-0.3010 TUTORIAL SESSIONS </s>
-0.3010 WAIT A MINUTE
-0.3010 WOMENS BATHROOM </s>
-0.3010 WOMENS RESTROOM </s>
-0.3010 WOMENS WASHROOM </s>

\end\
