Language model created by QuickLM on Fri Oct 21 20:20:46 EDT 2016
Copyright (c) 1996-2010 Carnegie Mellon University and Alexander I. Rudnicky

The model is in standard ARPA format, designed by Doug Paul while he was at MITRE.

The code that was used to produce this language model is available in Open Source.
Please visit http://www.speech.cs.cmu.edu/tools/ for more information

The (fixed) discount mass is 0.5. The backoffs are computed using the ratio method.
This model based on a corpus of 51 sentences and 44 words

\data\
ngram 1=44
ngram 2=95
ngram 3=106

\1-grams:
-0.9339 </s> -0.3010
-0.9339 <s> -0.2450
-2.1644 AREA -0.2473
-2.1644 BATHROOM -0.2473
-2.6415 BATHROOMS -0.2473
-2.6415 CAFETERIA -0.2473
-2.6415 DEMO -0.2473
-2.6415 DEMONSTRATION -0.2473
-2.6415 DEMONSTRATIONS -0.2473
-2.6415 DEMOS -0.2473
-2.6415 EAT -0.2473
-2.6415 ENTRANCE -0.2473
-2.3404 EXHIBIT -0.2439
-2.6415 EXHIBITS -0.2473
-2.6415 EXIT -0.2473
-2.0394 FOOD -0.2416
-2.6415 FOYER -0.2473
-2.1644 HELLO -0.2920
-2.1644 HEY -0.2920
-2.1644 HI -0.2920
-2.1644 JACKRABBIT -0.2473
-2.1644 JACKRABBOT -0.2473
-2.1644 JR -0.2473
-1.9425 KEYNOTE -0.2382
-2.6415 KEYNOTES -0.2473
-2.1644 MENS -0.2920
-2.1644 POSTER -0.2920
-2.6415 POSTERS -0.2473
-2.1644 RESTROOM -0.2473
-2.6415 RESTROOMS -0.2473
-2.1644 SESSION -0.2473
-2.1644 SESSIONS -0.2473
-2.6415 SOMETHING -0.3000
-2.6415 TALK -0.2473
-2.6415 TALKS -0.2473
-1.0852 THE -0.2517
-2.6415 TO -0.3000
-2.6415 TRUCK -0.2473
-2.6415 TRUCKS -0.2473
-2.1644 TUTORIAL -0.2405
-2.6415 TUTORIALS -0.2473
-2.1644 WASHROOM -0.2473
-2.6415 WASHROOMS -0.2473
-2.1644 WOMENS -0.2920

\2-grams:
-2.0086 <s> EXHIBIT -0.1761
-1.5315 <s> HELLO 0.0000
-1.5315 <s> HEY 0.0000
-1.5315 <s> HI 0.0000
-1.4065 <s> KEYNOTE -0.0792
-2.0086 <s> SOMETHING 0.0000
-0.4523 <s> THE 0.0000
-0.3010 AREA </s> -0.3010
-0.3010 BATHROOM </s> -0.3010
-0.3010 BATHROOMS </s> -0.3010
-0.3010 CAFETERIA </s> -0.3010
-0.3010 DEMO </s> -0.3010
-0.3010 DEMONSTRATION </s> -0.3010
-0.3010 DEMONSTRATIONS </s> -0.3010
-0.3010 DEMOS </s> -0.3010
-0.3010 EAT </s> -0.3010
-0.3010 ENTRANCE </s> -0.3010
-0.6021 EXHIBIT </s> -0.3010
-0.6021 EXHIBIT AREA 0.0000
-0.3010 EXHIBITS </s> -0.3010
-0.3010 EXIT </s> -0.3010
-0.9031 FOOD </s> -0.3010
-0.9031 FOOD AREA 0.0000
-0.9031 FOOD TRUCK 0.0000
-0.9031 FOOD TRUCKS 0.0000
-0.3010 FOYER </s> -0.3010
-0.7782 HELLO JACKRABBIT 0.0000
-0.7782 HELLO JACKRABBOT 0.0000
-0.7782 HELLO JR 0.0000
-0.7782 HEY JACKRABBIT 0.0000
-0.7782 HEY JACKRABBOT 0.0000
-0.7782 HEY JR 0.0000
-0.7782 HI JACKRABBIT 0.0000
-0.7782 HI JACKRABBOT 0.0000
-0.7782 HI JR 0.0000
-0.3010 JACKRABBIT </s> -0.3010
-0.3010 JACKRABBOT </s> -0.3010
-0.3010 JR </s> -0.3010
-1.0000 KEYNOTE </s> -0.3010
-1.0000 KEYNOTE SESSION 0.0000
-1.0000 KEYNOTE SESSIONS 0.0000
-1.0000 KEYNOTE TALK 0.0000
-1.0000 KEYNOTE TALKS 0.0000
-0.3010 KEYNOTES </s> -0.3010
-0.7782 MENS BATHROOM 0.0000
-0.7782 MENS RESTROOM 0.0000
-0.7782 MENS WASHROOM 0.0000
-0.7782 POSTER AREA 0.0000
-0.7782 POSTER SESSION 0.0000
-0.7782 POSTER SESSIONS 0.0000
-0.3010 POSTERS </s> -0.3010
-0.3010 RESTROOM </s> -0.3010
-0.3010 RESTROOMS </s> -0.3010
-0.3010 SESSION </s> -0.3010
-0.3010 SESSIONS </s> -0.3010
-0.3010 SOMETHING TO 0.0000
-0.3010 TALK </s> -0.3010
-0.3010 TALKS </s> -0.3010
-1.8573 THE BATHROOM 0.0000
-1.8573 THE BATHROOMS 0.0000
-1.8573 THE CAFETERIA 0.0000
-1.8573 THE DEMO 0.0000
-1.8573 THE DEMONSTRATION 0.0000
-1.8573 THE DEMONSTRATIONS 0.0000
-1.8573 THE DEMOS 0.0000
-1.8573 THE ENTRANCE 0.0000
-1.8573 THE EXHIBIT -0.1761
-1.8573 THE EXHIBITS 0.0000
-1.8573 THE EXIT 0.0000
-1.2553 THE FOOD 0.0000
-1.8573 THE FOYER 0.0000
-1.8573 THE KEYNOTE -0.2553
-1.8573 THE KEYNOTES 0.0000
-1.3802 THE MENS 0.0000
-1.3802 THE POSTER 0.0000
-1.8573 THE POSTERS 0.0000
-1.8573 THE RESTROOM 0.0000
-1.8573 THE RESTROOMS 0.0000
-1.3802 THE TUTORIAL 0.0000
-1.8573 THE TUTORIALS 0.0000
-1.8573 THE WASHROOM 0.0000
-1.8573 THE WASHROOMS 0.0000
-1.3802 THE WOMENS 0.0000
-0.3010 TO EAT 0.0000
-0.3010 TRUCK </s> -0.3010
-0.3010 TRUCKS </s> -0.3010
-0.7782 TUTORIAL </s> -0.3010
-0.7782 TUTORIAL SESSION 0.0000
-0.7782 TUTORIAL SESSIONS 0.0000
-0.3010 TUTORIALS </s> -0.3010
-0.3010 WASHROOM </s> -0.3010
-0.3010 WASHROOMS </s> -0.3010
-0.7782 WOMENS BATHROOM 0.0000
-0.7782 WOMENS RESTROOM 0.0000
-0.7782 WOMENS WASHROOM 0.0000

\3-grams:
-0.3010 <s> EXHIBIT AREA
-0.7782 <s> HELLO JACKRABBIT
-0.7782 <s> HELLO JACKRABBOT
-0.7782 <s> HELLO JR
-0.7782 <s> HEY JACKRABBIT
-0.7782 <s> HEY JACKRABBOT
-0.7782 <s> HEY JR
-0.7782 <s> HI JACKRABBIT
-0.7782 <s> HI JACKRABBOT
-0.7782 <s> HI JR
-0.9031 <s> KEYNOTE SESSION
-0.9031 <s> KEYNOTE SESSIONS
-0.9031 <s> KEYNOTE TALK
-0.9031 <s> KEYNOTE TALKS
-0.3010 <s> SOMETHING TO
-1.8573 <s> THE BATHROOM
-1.8573 <s> THE BATHROOMS
-1.8573 <s> THE CAFETERIA
-1.8573 <s> THE DEMO
-1.8573 <s> THE DEMONSTRATION
-1.8573 <s> THE DEMONSTRATIONS
-1.8573 <s> THE DEMOS
-1.8573 <s> THE ENTRANCE
-1.8573 <s> THE EXHIBIT
-1.8573 <s> THE EXHIBITS
-1.8573 <s> THE EXIT
-1.2553 <s> THE FOOD
-1.8573 <s> THE FOYER
-1.8573 <s> THE KEYNOTE
-1.8573 <s> THE KEYNOTES
-1.3802 <s> THE MENS
-1.3802 <s> THE POSTER
-1.8573 <s> THE POSTERS
-1.8573 <s> THE RESTROOM
-1.8573 <s> THE RESTROOMS
-1.3802 <s> THE TUTORIAL
-1.8573 <s> THE TUTORIALS
-1.8573 <s> THE WASHROOM
-1.8573 <s> THE WASHROOMS
-1.3802 <s> THE WOMENS
-0.3010 EXHIBIT AREA </s>
-0.3010 FOOD AREA </s>
-0.3010 FOOD TRUCK </s>
-0.3010 FOOD TRUCKS </s>
-0.3010 HELLO JACKRABBIT </s>
-0.3010 HELLO JACKRABBOT </s>
-0.3010 HELLO JR </s>
-0.3010 HEY JACKRABBIT </s>
-0.3010 HEY JACKRABBOT </s>
-0.3010 HEY JR </s>
-0.3010 HI JACKRABBIT </s>
-0.3010 HI JACKRABBOT </s>
-0.3010 HI JR </s>
-0.3010 KEYNOTE SESSION </s>
-0.3010 KEYNOTE SESSIONS </s>
-0.3010 KEYNOTE TALK </s>
-0.3010 KEYNOTE TALKS </s>
-0.3010 MENS BATHROOM </s>
-0.3010 MENS RESTROOM </s>
-0.3010 MENS WASHROOM </s>
-0.3010 POSTER AREA </s>
-0.3010 POSTER SESSION </s>
-0.3010 POSTER SESSIONS </s>
-0.3010 SOMETHING TO EAT
-0.3010 THE BATHROOM </s>
-0.3010 THE BATHROOMS </s>
-0.3010 THE CAFETERIA </s>
-0.3010 THE DEMO </s>
-0.3010 THE DEMONSTRATION </s>
-0.3010 THE DEMONSTRATIONS </s>
-0.3010 THE DEMOS </s>
-0.3010 THE ENTRANCE </s>
-0.3010 THE EXHIBIT </s>
-0.3010 THE EXHIBITS </s>
-0.3010 THE EXIT </s>
-0.9031 THE FOOD </s>
-0.9031 THE FOOD AREA
-0.9031 THE FOOD TRUCK
-0.9031 THE FOOD TRUCKS
-0.3010 THE FOYER </s>
-0.3010 THE KEYNOTE </s>
-0.3010 THE KEYNOTES </s>
-0.7782 THE MENS BATHROOM
-0.7782 THE MENS RESTROOM
-0.7782 THE MENS WASHROOM
-0.7782 THE POSTER AREA
-0.7782 THE POSTER SESSION
-0.7782 THE POSTER SESSIONS
-0.3010 THE POSTERS </s>
-0.3010 THE RESTROOM </s>
-0.3010 THE RESTROOMS </s>
-0.7782 THE TUTORIAL </s>
-0.7782 THE TUTORIAL SESSION
-0.7782 THE TUTORIAL SESSIONS
-0.3010 THE TUTORIALS </s>
-0.3010 THE WASHROOM </s>
-0.3010 THE WASHROOMS </s>
-0.7782 THE WOMENS BATHROOM
-0.7782 THE WOMENS RESTROOM
-0.7782 THE WOMENS WASHROOM
-0.3010 TO EAT </s>
-0.3010 TUTORIAL SESSION </s>
-0.3010 TUTORIAL SESSIONS </s>
-0.3010 WOMENS BATHROOM </s>
-0.3010 WOMENS RESTROOM </s>
-0.3010 WOMENS WASHROOM </s>

\end\
